digraph Tree {
node [shape=box, style="rounded", color="black", fontname=helvetica] ;
edge [fontname=helvetica] ;
0 [label="temp_1 <= 62.5\nmse = 143.4\nsamples = 160\nvalue = 62.0"] ;
1 [label="average <= 46.9\nmse = 42.2\nsamples = 77\nvalue = 52.4"] ;
0 -> 1 [labeldistance=2.5, labelangle=45, headlabel="True"] ;
2 [label="temp_1 <= 41.0\nmse = 10.5\nsamples = 20\nvalue = 42.8"] ;
1 -> 2 ;
3 [label="mse = 8.4\nsamples = 6\nvalue = 39.9"] ;
2 -> 3 ;
4 [label="mse = 6.5\nsamples = 14\nvalue = 44.0"] ;
2 -> 4 ;
5 [label="average <= 50.6\nmse = 20.4\nsamples = 57\nvalue = 54.9"] ;
1 -> 5 ;
6 [label="mse = 8.9\nsamples = 26\nvalue = 51.8"] ;
5 -> 6 ;
7 [label="mse = 14.7\nsamples = 31\nvalue = 57.7"] ;
5 -> 7 ;
8 [label="temp_1 <= 71.5\nmse = 43.8\nsamples = 83\nvalue = 72.4"] ;
0 -> 8 [labeldistance=2.5, labelangle=-45, headlabel="False"] ;
9 [label="average <= 69.7\nmse = 23.5\nsamples = 41\nvalue = 67.8"] ;
8 -> 9 ;
10 [label="mse = 17.1\nsamples = 28\nvalue = 65.8"] ;
9 -> 10 ;
11 [label="mse = 10.0\nsamples = 13\nvalue = 72.2"] ;
9 -> 11 ;
12 [label="temp_1 <= 83.5\nmse = 31.4\nsamples = 42\nvalue = 75.8"] ;
8 -> 12 ;
13 [label="mse = 26.7\nsamples = 36\nvalue = 75.1"] ;
12 -> 13 ;
14 [label="mse = 29.9\nsamples = 6\nvalue = 81.8"] ;
12 -> 14 ;
}